{
  "layers": 2,
  "kernels": [
    [
      {
        "depth": 3,
        "size": 3,
        "kernels": [
          {
            "matrix": [
              -7.642883254014272,
              1.0316883406035426,
              3.1408315447617774,
              -4.08783571170106,
              4.381261724481611,
              8.26178098534735,
              -0.7040139365724807,
              8.34291091157426,
              -9.717222157275994
            ],
            "width": 3,
            "height": 3
          },
          {
            "matrix": [
              -0.9358200680659579,
              7.276851336934058,
              -5.50995215446592,
              -7.581703712639349,
              -3.1581057596781736,
              2.167384204001346,
              -1.3313397500132584,
              -0.3875528438571152,
              8.252346481827608
            ],
            "width": 3,
            "height": 3
          },
          {
            "matrix": [
              3.92195493537312,
              6.68995989674773,
              5.820366563957857,
              7.65161274762336,
              -2.018086189788204,
              -2.7558163238403033,
              6.8134115416861585,
              -9.148777710120356,
              2.0796567881766803
            ],
            "width": 3,
            "height": 3
          }
        ]
      },
      {
        "depth": 3,
        "size": 3,
        "kernels": [
          {
            "matrix": [
              -3.8481015003283003,
              1.3984879447348852,
              -9.497948054143572,
              0.9563424784020835,
              7.758141542909178,
              -5.968262283882404,
              4.34494114754596,
              -8.700266884260452,
              4.857664341788603
            ],
            "width": 3,
            "height": 3
          },
          {
            "matrix": [
              7.831550340100204,
              9.388152679630482,
              6.632449114124261,
              1.5137332648023927,
              -6.514312223561682,
              -0.13964234109581586,
              -7.911438270806381,
              6.752835986049517,
              -7.733750773256811
            ],
            "width": 3,
            "height": 3
          },
          {
            "matrix": [
              -6.427469487838278,
              -7.272915669583413,
              3.3503500156804478,
              -0.01157529826220749,
              8.278799623364868,
              -2.0179821548351606,
              -1.596746702452716,
              -0.19412651514898016,
              5.033576100910806
            ],
            "width": 3,
            "height": 3
          }
        ]
      },
      {
        "depth": 3,
        "size": 3,
        "kernels": [
          {
            "matrix": [
              -8.738639094357614,
              -3.4437471636126604,
              8.472148624681193,
              7.249506444841112,
              -6.771988627326131,
              -8.891475241009381,
              -0.013078817107334828,
              -9.93069543479844,
              6.973396897826447
            ],
            "width": 3,
            "height": 3
          },
          {
            "matrix": [
              -4.330743391179168,
              -3.007555526420589,
              -4.9603645357918635,
              -2.455860436253756,
              6.334369043075814,
              0.003974899065255499,
              -9.65923468328505,
              -8.509601137978994,
              7.601837055416878
            ],
            "width": 3,
            "height": 3
          },
          {
            "matrix": [
              -9.824350854185955,
              -8.191697706092445,
              -0.7714119252764062,
              -5.228077507859008,
              -5.276073298740727,
              4.175214060329822,
              -6.086919949732654,
              0.6731678543524877,
              8.47690423990409
            ],
            "width": 3,
            "height": 3
          }
        ]
      },
      {
        "depth": 3,
        "size": 3,
        "kernels": [
          {
            "matrix": [
              -1.381599617506466,
              -9.222323020679738,
              0.3238103120271152,
              -9.27960510447225,
              0.3149319542771867,
              -9.47698940003126,
              9.606352972347828,
              7.358434521291559,
              -7.083065495239271
            ],
            "width": 3,
            "height": 3
          },
          {
            "matrix": [
              -0.2007352743955071,
              8.164798475128293,
              -5.930143278528153,
              5.990309866285806,
              -6.518903186235914,
              4.9014958610722426,
              3.1755572053225922,
              -5.937413851758939,
              -9.30688958169366
            ],
            "width": 3,
            "height": 3
          },
          {
            "matrix": [
              -8.65484433333345,
              -3.720397264335551,
              2.7544519499917453,
              4.984503508804954,
              -2.272192254658054,
              -7.674000851003284,
              4.097191797272539,
              -9.615128810072274,
              3.7363818223708334
            ],
            "width": 3,
            "height": 3
          }
        ]
      },
      {
        "depth": 3,
        "size": 3,
        "kernels": [
          {
            "matrix": [
              -1.7948047501679776,
              -4.2571379685862,
              3.407024248474242,
              -0.7516417978554868,
              -7.335829735794288,
              1.7427867856939905,
              -7.154298869586269,
              -4.843490271504103,
              -2.839533707181716
            ],
            "width": 3,
            "height": 3
          },
          {
            "matrix": [
              -6.445762618924222,
              -3.9341253462227144,
              8.197885828150708,
              -9.50141993192791,
              -1.1999640038663761,
              -9.016810708279772,
              -9.272059300886152,
              6.913256325997175,
              2.4732668559598503
            ],
            "width": 3,
            "height": 3
          },
          {
            "matrix": [
              -6.5142597696450055,
              3.6664774813286094,
              -4.697409256495395,
              7.079892677093844,
              3.5728793310117712,
              4.744770039084494,
              0.1851715461442094,
              5.555117074343636,
              0.3383988241415281
            ],
            "width": 3,
            "height": 3
          }
        ]
      }
    ],
    [
      {
        "depth": 5,
        "size": 3,
        "kernels": [
          {
            "matrix": [
              3.1269514304773294,
              6.016308886284878,
              -0.1793382252725717,
              -7.055667442264033,
              -1.870724707058078,
              -1.0245674917160885,
              -3.8645664938605018,
              -7.354559621646959,
              -9.482442347367073
            ],
            "width": 3,
            "height": 3
          },
          {
            "matrix": [
              8.11331213083957,
              2.5698572549579923,
              5.836743242423332,
              -1.9372628872610287,
              -7.606223345298031,
              -9.767040056923513,
              -0.09060529469401946,
              2.0626353523405827,
              -5.453572490757566
            ],
            "width": 3,
            "height": 3
          },
          {
            "matrix": [
              -1.096313431602649,
              3.142513968028351,
              -0.59797136498561,
              -9.975736586562359,
              -0.5773234316770148,
              -8.158730424365924,
              -7.0496695227186335,
              6.207206222497996,
              2.0480309475864367
            ],
            "width": 3,
            "height": 3
          },
          {
            "matrix": [
              0.596394118886141,
              -1.1059822490148807,
              3.298247719735752,
              4.206799103154051,
              3.2192581040622503,
              -3.1701080920098734,
              -6.986341841558579,
              8.920286929453711,
              -7.424738516267664
            ],
            "width": 3,
            "height": 3
          },
          {
            "matrix": [
              -1.4356166192443798,
              7.109042625801161,
              5.892189704279809,
              -7.546927789685869,
              1.3301903479103894,
              6.6197379944502455,
              8.741771377113068,
              -0.4691499227131235,
              -9.256630841694292
            ],
            "width": 3,
            "height": 3
          }
        ]
      },
      {
        "depth": 5,
        "size": 3,
        "kernels": [
          {
            "matrix": [
              6.946262466832698,
              8.383026163875211,
              -6.723196261247524,
              -7.424607553565941,
              -0.6343281371278664,
              0.8461805969473435,
              3.906849168275439,
              2.95002845201656,
              -2.685090802764738
            ],
            "width": 3,
            "height": 3
          },
          {
            "matrix": [
              1.2484013251888904,
              -5.813346134490485,
              -8.08503952871471,
              -9.381923275163286,
              -3.7696973902038167,
              6.921428598512294,
              8.753939635788143,
              7.440323751968156,
              5.771858457654453
            ],
            "width": 3,
            "height": 3
          },
          {
            "matrix": [
              -1.6677463382664115,
              -8.507810380548918,
              -7.276736838791473,
              -6.1898302936152705,
              9.409661092182429,
              6.846497348388927,
              3.9194884707284006,
              -0.7562563955366697,
              6.184623346894562
            ],
            "width": 3,
            "height": 3
          },
          {
            "matrix": [
              -6.629363127409023,
              2.396994779234629,
              8.532780042840429,
              -1.4981791445206438,
              5.519087978691588,
              4.734077667190428,
              -4.378780742992503,
              4.481733461980104,
              -4.13893768869984
            ],
            "width": 3,
            "height": 3
          },
          {
            "matrix": [
              -7.910421109722705,
              2.874615094079833,
              9.813359416170563,
              -6.749602697776553,
              -5.184834211660854,
              4.298898309865589,
              6.5486010300363295,
              -6.89380821689253,
              2.484487107630411
            ],
            "width": 3,
            "height": 3
          }
        ]
      },
      {
        "depth": 5,
        "size": 3,
        "kernels": [
          {
            "matrix": [
              -5.220600583780981,
              -6.9547327589198105,
              9.006957790058392,
              7.571239968324055,
              2.2460283257281732,
              8.494244971642267,
              -8.572150745866516,
              -2.6628789018627907,
              8.1094256823532
            ],
            "width": 3,
            "height": 3
          },
          {
            "matrix": [
              4.492075474456558,
              -4.314241200176805,
              -7.813656532490656,
              5.196169779875852,
              -6.481344807271574,
              -0.8385929948672999,
              3.8952133952280388,
              9.67024385321039,
              -9.8807208649535
            ],
            "width": 3,
            "height": 3
          },
          {
            "matrix": [
              8.65340967206718,
              0.5071339869786495,
              9.399315276573592,
              -0.33695215716920135,
              7.046075703714285,
              3.666393900682343,
              0.06329763745455352,
              4.21845819679219,
              1.2919441398493525
            ],
            "width": 3,
            "height": 3
          },
          {
            "matrix": [
              -3.5082901415307743,
              2.140634888472559,
              9.902353796570956,
              0.9106133692583152,
              -3.2848831957449853,
              -0.14029591897868343,
              3.1949317748305317,
              3.6880003837674646,
              2.7253214009271387
            ],
            "width": 3,
            "height": 3
          },
          {
            "matrix": [
              8.364310029671556,
              3.9674472364591917,
              4.432179642748966,
              -1.5370979334369528,
              8.86475836450716,
              2.216892254479057,
              5.9505358449990275,
              2.0739741134890366,
              8.78314888854176
            ],
            "width": 3,
            "height": 3
          }
        ]
      },
      {
        "depth": 5,
        "size": 3,
        "kernels": [
          {
            "matrix": [
              -6.4805362792319965,
              3.71497878354464,
              2.181525467222998,
              4.129172570362867,
              -2.2543780871330776,
              -9.10334858559768,
              5.804893095762833,
              -5.254409336143104,
              -4.3253451742227345
            ],
            "width": 3,
            "height": 3
          },
          {
            "matrix": [
              2.296120910877346,
              8.87695346381209,
              5.6654015582069706,
              0.06181890082854302,
              8.615757581093737,
              -1.64427276268849,
              6.600931442871687,
              7.125545495555494,
              -1.1353194876987516
            ],
            "width": 3,
            "height": 3
          },
          {
            "matrix": [
              9.234321978307163,
              -6.177175718687993,
              2.8291210804199007,
              1.6564059436194478,
              2.1495620396477744,
              0.3952754637844036,
              9.319200308736262,
              -4.9679846858345345,
              -1.3718537118572982
            ],
            "width": 3,
            "height": 3
          },
          {
            "matrix": [
              -7.449409824419484,
              -3.89314412140624,
              7.868915544751647,
              1.8869863309317214,
              -9.996031554668932,
              9.844621179247635,
              -4.044559726410681,
              7.422188345564744,
              -0.16379849182075912
            ],
            "width": 3,
            "height": 3
          },
          {
            "matrix": [
              -9.404469379461045,
              -0.351819982489352,
              8.185070940696452,
              7.595301740948082,
              -0.5607594439749297,
              0.3636291371752254,
              5.864296475386461,
              -9.98703405617773,
              8.72468028767587
            ],
            "width": 3,
            "height": 3
          }
        ]
      },
      {
        "depth": 5,
        "size": 3,
        "kernels": [
          {
            "matrix": [
              -5.4958836964836255,
              -1.1264313440499185,
              9.766682881770103,
              9.553071174899666,
              -2.299968248280093,
              -2.2891688861131376,
              2.4718800151623554,
              -5.352695524444768,
              9.487911143159579
            ],
            "width": 3,
            "height": 3
          },
          {
            "matrix": [
              -6.812169749747761,
              1.4558965258349899,
              -8.524101594988016,
              3.1567824946421785,
              3.8786024382640605,
              8.667457022121955,
              7.061768818559382,
              5.1581572608713255,
              0.9300627142357243
            ],
            "width": 3,
            "height": 3
          },
          {
            "matrix": [
              -8.995520423823029,
              2.402925733383654,
              9.538482204567522,
              -0.5795547714475147,
              9.57786910337223,
              4.2171721902101345,
              1.5416881148844253,
              -4.960166450926509,
              0.144954499696488
            ],
            "width": 3,
            "height": 3
          },
          {
            "matrix": [
              7.425744816017192,
              3.7007759654372485,
              -1.2196373921557546,
              5.424957520340614,
              4.58379521731481,
              -1.8428728756464707,
              3.598374098443129,
              4.669157244712663,
              -5.925209206596018
            ],
            "width": 3,
            "height": 3
          },
          {
            "matrix": [
              2.108178335181692,
              -7.1589075537593505,
              8.383732642329672,
              -7.619436221042455,
              -5.7286935708822195,
              8.630084457238038,
              -1.8527753597471674,
              -9.18992388637279,
              -1.6726969880802223
            ],
            "width": 3,
            "height": 3
          }
        ]
      },
      {
        "depth": 5,
        "size": 3,
        "kernels": [
          {
            "matrix": [
              -3.1246496543217317,
              -6.25840264435928,
              -7.557438829439667,
              -4.646192899636334,
              -8.8489596033825,
              0.8947342756108645,
              2.6370910185911534,
              -5.089649964036687,
              -1.557190538945008
            ],
            "width": 3,
            "height": 3
          },
          {
            "matrix": [
              -8.718621109814793,
              -1.183996082408889,
              7.038716624042203,
              7.7395517548070325,
              -6.223502071869507,
              -6.238079337589837,
              6.1764712584710635,
              -4.218157034718137,
              9.450379591207337
            ],
            "width": 3,
            "height": 3
          },
          {
            "matrix": [
              -4.248867077552756,
              -8.873425135330875,
              9.128171681725528,
              -3.528536181786115,
              -3.2996965595022587,
              -7.6901528748989145,
              -3.7394974339560205,
              9.06598025677393,
              -7.958982605146323
            ],
            "width": 3,
            "height": 3
          },
          {
            "matrix": [
              -6.477037042382876,
              6.918964233777656,
              -6.526239272254899,
              3.4907659169469163,
              7.404054087728862,
              -7.404338537512607,
              6.949797040198806,
              -0.9173070121970106,
              2.653377179592984
            ],
            "width": 3,
            "height": 3
          },
          {
            "matrix": [
              -6.740202940513309,
              -5.486007467549903,
              -2.2415984870005046,
              5.1913895549208044,
              2.615439894417686,
              4.1052886054022775,
              7.926349495663572,
              -4.683761392177157,
              7.518818986307831
            ],
            "width": 3,
            "height": 3
          }
        ]
      },
      {
        "depth": 5,
        "size": 3,
        "kernels": [
          {
            "matrix": [
              0.37424685196240315,
              9.429650614114514,
              7.425636383310916,
              -7.3505210286195855,
              0.9949909369468646,
              1.3824206301089381,
              -5.483965531324992,
              7.8934319081111814,
              9.182117369511907
            ],
            "width": 3,
            "height": 3
          },
          {
            "matrix": [
              -4.850167470132751,
              7.8034266043346845,
              -1.2649373916837225,
              2.224369201207863,
              9.260501910446845,
              2.0483015550386385,
              -1.997690100006153,
              -9.20768985064965,
              -1.4288639837437467
            ],
            "width": 3,
            "height": 3
          },
          {
            "matrix": [
              -1.091182030740745,
              9.75994560230449,
              9.888430689139547,
              -2.118367193124455,
              -3.571210426981879,
              -5.805740328340776,
              -8.72186072424988,
              4.760343070278044,
              6.985822821514951
            ],
            "width": 3,
            "height": 3
          },
          {
            "matrix": [
              -6.349133744422528,
              -9.448912284652454,
              -1.4927404623302998,
              -0.06454448426912673,
              -2.0925701503052085,
              -1.3753760932480619,
              5.638446244345259,
              8.818720194116283,
              -5.501275050034815
            ],
            "width": 3,
            "height": 3
          },
          {
            "matrix": [
              2.92511563766805,
              -0.6879164666333804,
              -7.892418422465024,
              -8.803326165261982,
              -2.5865857740039555,
              -7.725929499774793,
              3.159157333357898,
              -9.071016388672724,
              0.9705643347097181
            ],
            "width": 3,
            "height": 3
          }
        ]
      },
      {
        "depth": 5,
        "size": 3,
        "kernels": [
          {
            "matrix": [
              4.445433998640671,
              8.16806339171782,
              -0.6960984367108658,
              -3.438947681531177,
              -1.2447420787999741,
              -1.1080162019364836,
              9.640173862155876,
              -6.154015701634528,
              -3.9500319288886976
            ],
            "width": 3,
            "height": 3
          },
          {
            "matrix": [
              7.290450642882864,
              2.3992158340241243,
              8.075658425038021,
              -1.2141608295909334,
              3.095250583353204,
              -8.284578899673512,
              -3.32291149429905,
              2.8467151983320793,
              4.129131490964273
            ],
            "width": 3,
            "height": 3
          },
          {
            "matrix": [
              -3.3869570115397085,
              9.691186216211358,
              -5.797010386394579,
              2.2399743406221617,
              5.827444530464696,
              -2.1970290889929123,
              -3.4224820390599664,
              8.309556340097842,
              -4.917908567531488
            ],
            "width": 3,
            "height": 3
          },
          {
            "matrix": [
              -9.1220506986169,
              2.937338200029953,
              8.883629730570895,
              -2.508058438206242,
              -6.490324710150821,
              -2.340400060498564,
              -4.467654151732128,
              7.525464934660384,
              -7.897771034192318
            ],
            "width": 3,
            "height": 3
          },
          {
            "matrix": [
              -9.848384901003108,
              5.444502519998866,
              -0.899682787865399,
              -2.245142883324789,
              -9.255859565506132,
              -7.640301092140467,
              -4.1872564160033665,
              4.12108392384392,
              9.057915333260116
            ],
            "width": 3,
            "height": 3
          }
        ]
      },
      {
        "depth": 5,
        "size": 3,
        "kernels": [
          {
            "matrix": [
              -3.273610734648291,
              6.753783860678566,
              -1.5970112765562172,
              -3.19712420053031,
              -7.980878006015351,
              3.907992810071761,
              -1.2981634889888527,
              -8.81799263622192,
              6.302626378271743
            ],
            "width": 3,
            "height": 3
          },
          {
            "matrix": [
              -8.705457185975224,
              8.495090422268458,
              -7.046752331077788,
              8.731477620992658,
              8.7786489196868,
              -0.20592597532967272,
              -8.93254875520865,
              -5.8598106723273435,
              -1.1289875874414124
            ],
            "width": 3,
            "height": 3
          },
          {
            "matrix": [
              -4.034173403091095,
              3.9857472370288427,
              -4.421177579188513,
              -7.217965499130248,
              -7.310442266986836,
              -7.870621432647926,
              -8.218805344070796,
              -4.383920929983529,
              2.5338791427727836
            ],
            "width": 3,
            "height": 3
          },
          {
            "matrix": [
              -3.7891920567870185,
              -2.1770368963668973,
              4.074768120990027,
              0.7819446365585758,
              2.4278703446111605,
              -2.3336590156768455,
              9.91060737439954,
              2.7842384516109764,
              -6.926811987708832
            ],
            "width": 3,
            "height": 3
          },
          {
            "matrix": [
              -6.888981730182633,
              8.02169298903837,
              -5.375359111451137,
              -6.788268196282408,
              5.026831202915876,
              7.777729134749731,
              0.7225338639709644,
              -4.471113267765876,
              6.121492401001785
            ],
            "width": 3,
            "height": 3
          }
        ]
      },
      {
        "depth": 5,
        "size": 3,
        "kernels": [
          {
            "matrix": [
              8.892971726986513,
              -3.6336064460049844,
              3.6408711802188165,
              -7.953045611938032,
              -8.816624325230444,
              9.559335553016112,
              -1.3201436922842769,
              7.636138098039669,
              -2.099282932270885
            ],
            "width": 3,
            "height": 3
          },
          {
            "matrix": [
              5.196352657954417,
              -2.4314456501984427,
              1.1096743898708095,
              -7.810547474559901,
              -0.5899645923342067,
              -7.822543385716911,
              5.459581970212595,
              6.609504321988102,
              -7.023894270973625
            ],
            "width": 3,
            "height": 3
          },
          {
            "matrix": [
              -6.171644297332266,
              0.25065321640898475,
              -2.6298858561613825,
              1.9631678263139696,
              6.173276979914255,
              -5.322297979300945,
              -5.1361470426909905,
              7.319497691305261,
              4.8533305333076715
            ],
            "width": 3,
            "height": 3
          },
          {
            "matrix": [
              2.1590255950791004,
              4.034217802057554,
              3.3064544417496133,
              9.695150609217249,
              -0.7780429697164148,
              -3.3761313664306947,
              -0.09104404517782605,
              1.018056041625548,
              2.961164323678611
            ],
            "width": 3,
            "height": 3
          },
          {
            "matrix": [
              -6.062371483782623,
              -5.833846006349566,
              -6.9251391251324,
              -7.6902888752948595,
              -6.14618290565216,
              -3.8927307454246396,
              -2.357437324994116,
              7.168626675751701,
              -9.61513818255276
            ],
            "width": 3,
            "height": 3
          }
        ]
      }
    ]
  ],
  "biases": [
    {
      "images": [
        {
          "pixels": [
            0,
            0,
            0,
            0,
            0,
            0,
            0,
            0,
            0,
            0,
            0,
            0,
            0,
            0,
            0,
            0,
            0,
            0,
            0,
            0,
            0,
            0,
            0,
            0,
            0,
            0,
            0,
            0,
            0,
            0,
            0,
            0,
            0,
            0,
            0,
            0,
            0,
            0,
            0,
            0,
            0,
            0,
            0,
            0,
            0,
            0,
            0,
            0,
            0,
            0,
            0,
            0,
            0,
            0,
            0,
            0,
            0,
            0,
            0,
            0,
            0,
            0,
            0,
            0,
            0,
            0,
            0,
            0,
            0,
            0,
            0,
            0,
            0,
            0,
            0,
            0,
            0,
            0,
            0,
            0,
            0,
            0,
            0,
            0,
            0,
            0,
            0,
            0,
            0,
            0,
            0,
            0,
            0,
            0,
            0,
            0,
            0,
            0,
            0,
            0,
            0,
            0,
            0,
            0,
            0,
            0,
            0,
            0,
            0,
            0,
            0,
            0,
            0,
            0,
            0,
            0,
            0,
            0,
            0,
            0,
            0,
            0,
            0,
            0,
            0,
            0,
            0,
            0,
            0,
            0,
            0,
            0,
            0,
            0,
            0,
            0,
            0,
            0,
            0,
            0,
            0,
            0,
            0,
            0,
            0,
            0,
            0,
            0,
            0,
            0,
            0,
            0,
            0,
            0,
            0,
            0,
            0,
            0,
            0,
            0,
            0,
            0,
            0,
            0,
            0,
            0,
            0,
            0,
            0,
            0,
            0,
            0,
            0,
            0,
            0,
            0,
            0,
            0,
            0,
            0,
            0,
            0,
            0,
            0,
            0,
            0,
            0,
            0,
            0,
            0,
            0,
            0,
            0,
            0,
            0,
            0,
            0,
            0,
            0,
            0,
            0,
            0,
            0,
            0,
            0,
            0,
            0,
            0,
            0,
            0,
            0,
            0,
            0,
            0,
            0,
            0,
            0,
            0,
            0,
            0,
            0,
            0,
            0,
            0,
            0,
            0,
            0,
            0,
            0,
            0,
            0,
            0,
            0,
            0,
            0,
            0,
            0,
            0,
            0,
            0,
            0,
            0,
            0,
            0,
            0,
            0,
            0,
            0,
            0,
            0,
            0,
            0,
            0,
            0,
            0,
            0,
            0,
            0,
            0,
            0,
            0,
            0,
            0,
            0,
            0,
            0,
            0,
            0,
            0,
            0,
            0,
            0,
            0,
            0,
            0,
            0,
            0,
            0,
            0,
            0,
            0,
            0,
            0,
            0,
            0,
            0,
            0,
            0,
            0,
            0,
            0,
            0,
            0,
            0,
            0,
            0,
            0,
            0,
            0,
            0,
            0,
            0,
            0,
            0,
            0,
            0,
            0,
            0,
            0,
            0,
            0,
            0,
            0,
            0,
            0,
            0,
            0,
            0,
            0,
            0,
            0,
            0,
            0,
            0,
            0,
            0,
            0,
            0,
            0,
            0,
            0,
            0,
            0,
            0,
            0,
            0,
            0,
            0,
            0,
            0,
            0,
            0,
            0,
            0,
            0,
            0,
            0,
            0,
            0,
            0,
            0,
            0,
            0,
            0,
            0,
            0,
            0,
            0,
            0,
            0,
            0,
            0,
            0,
            0,
            0,
            0,
            0,
            0,
            0,
            0,
            0,
            0,
            0,
            0,
            0,
            0,
            0,
            0,
            0,
            0,
            0,
            0,
            0,
            0,
            0,
            0,
            0,
            0,
            0,
            0,
            0,
            0,
            0,
            0,
            0,
            0,
            0,
            0,
            0,
            0,
            0,
            0,
            0,
            0,
            0,
            0,
            0,
            0,
            0,
            0,
            0,
            0,
            0,
            0,
            0,
            0,
            0,
            0,
            0,
            0,
            0,
            0,
            0,
            0,
            0,
            0,
            0,
            0,
            0,
            0,
            0,
            0,
            0,
            0,
            0,
            0,
            0,
            0,
            0,
            0,
            0,
            0,
            0,
            0,
            0,
            0,
            0,
            0,
            0,
            0,
            0,
            0,
            0,
            0,
            0,
            0,
            0,
            0,
            0,
            0,
            0,
            0,
            0,
            0,
            0,
            0,
            0,
            0,
            0,
            0,
            0,
            0,
            0,
            0,
            0,
            0,
            0,
            0,
            0,
            0,
            0,
            0,
            0,
            0,
            0,
            0,
            0,
            0,
            0,
            0,
            0,
            0,
            0,
            0,
            0,
            0,
            0,
            0,
            0,
            0,
            0,
            0,
            0,
            0,
            0,
            0,
            0,
            0,
            0,
            0,
            0,
            0,
            0,
            0,
            0,
            0,
            0,
            0,
            0,
            0,
            0,
            0,
            0,
            0,
            0,
            0,
            0,
            0,
            0,
            0,
            0,
            0,
            0,
            0,
            0,
            0,
            0,
            0,
            0,
            0,
            0,
            0,
            0,
            0,
            0,
            0,
            0,
            0,
            0,
            0,
            0,
            0,
            0,
            0,
            0,
            0,
            0,
            0,
            0,
            0,
            0,
            0,
            0,
            0,
            0,
            0,
            0,
            0,
            0,
            0,
            0,
            0,
            0,
            0,
            0,
            0,
            0,
            0,
            0,
            0,
            0,
            0,
            0,
            0,
            0,
            0,
            0,
            0,
            0,
            0,
            0,
            0,
            0,
            0,
            0,
            0,
            0,
            0,
            0,
            0,
            0,
            0,
            0,
            0,
            0,
            0,
            0,
            0,
            0,
            0,
            0,
            0,
            0,
            0,
            0,
            0,
            0,
            0,
            0,
            0,
            0,
            0,
            0,
            0,
            0,
            0,
            0,
            0,
            0,
            0,
            0,
            0,
            0,
            0,
            0,
            0,
            0,
            0,
            0,
            0,
            0,
            0,
            0,
            0,
            0,
            0,
            0,
            0,
            0,
            0,
            0,
            0,
            0,
            0,
            0,
            0,
            0,
            0,
            0,
            0,
            0,
            0,
            0,
            0,
            0,
            0,
            0,
            0,
            0,
            0,
            0,
            0,
            0,
            0,
            0,
            0,
            0,
            0,
            0,
            0,
            0,
            0,
            0,
            0,
            0,
            0,
            0,
            0,
            0,
            0,
            0,
            0,
            0,
            0,
            0,
            0,
            0,
            0,
            0,
            0,
            0,
            0,
            0,
            0,
            0,
            0,
            0,
            0,
            0,
            0,
            0,
            0,
            0,
            0,
            0,
            0,
            0,
            0,
            0,
            0,
            0,
            0,
            0,
            0,
            0,
            0,
            0,
            0,
            0,
            0,
            0,
            0,
            0,
            0,
            0,
            0,
            0,
            0,
            0,
            0,
            0,
            0,
            0,
            0,
            0,
            0,
            0,
            0,
            0,
            0,
            0,
            0,
            0,
            0,
            0,
            0,
            0,
            0,
            0,
            0,
            0,
            0,
            0,
            0,
            0,
            0,
            0,
            0,
            0,
            0,
            0,
            0,
            0,
            0,
            0,
            0,
            0,
            0,
            0,
            0,
            0,
            0,
            0,
            0
          ],
          "width": 28,
          "height": 28
        },
        {
          "pixels": [
            0,
            0,
            0,
            0,
            0,
            0,
            0,
            0,
            0,
            0,
            0,
            0,
            0,
            0,
            0,
            0,
            0,
            0,
            0,
            0,
            0,
            0,
            0,
            0,
            0,
            0,
            0,
            0,
            0,
            0,
            0,
            0,
            0,
            0,
            0,
            0,
            0,
            0,
            0,
            0,
            0,
            0,
            0,
            0,
            0,
            0,
            0,
            0,
            0,
            0,
            0,
            0,
            0,
            0,
            0,
            0,
            0,
            0,
            0,
            0,
            0,
            0,
            0,
            0,
            0,
            0,
            0,
            0,
            0,
            0,
            0,
            0,
            0,
            0,
            0,
            0,
            0,
            0,
            0,
            0,
            0,
            0,
            0,
            0,
            0,
            0,
            0,
            0,
            0,
            0,
            0,
            0,
            0,
            0,
            0,
            0,
            0,
            0,
            0,
            0,
            0,
            0,
            0,
            0,
            0,
            0,
            0,
            0,
            0,
            0,
            0,
            0,
            0,
            0,
            0,
            0,
            0,
            0,
            0,
            0,
            0,
            0,
            0,
            0,
            0,
            0,
            0,
            0,
            0,
            0,
            0,
            0,
            0,
            0,
            0,
            0,
            0,
            0,
            0,
            0,
            0,
            0,
            0,
            0,
            0,
            0,
            0,
            0,
            0,
            0,
            0,
            0,
            0,
            0,
            0,
            0,
            0,
            0,
            0,
            0,
            0,
            0,
            0,
            0,
            0,
            0,
            0,
            0,
            0,
            0,
            0,
            0,
            0,
            0,
            0,
            0,
            0,
            0,
            0,
            0,
            0,
            0,
            0,
            0,
            0,
            0,
            0,
            0,
            0,
            0,
            0,
            0,
            0,
            0,
            0,
            0,
            0,
            0,
            0,
            0,
            0,
            0,
            0,
            0,
            0,
            0,
            0,
            0,
            0,
            0,
            0,
            0,
            0,
            0,
            0,
            0,
            0,
            0,
            0,
            0,
            0,
            0,
            0,
            0,
            0,
            0,
            0,
            0,
            0,
            0,
            0,
            0,
            0,
            0,
            0,
            0,
            0,
            0,
            0,
            0,
            0,
            0,
            0,
            0,
            0,
            0,
            0,
            0,
            0,
            0,
            0,
            0,
            0,
            0,
            0,
            0,
            0,
            0,
            0,
            0,
            0,
            0,
            0,
            0,
            0,
            0,
            0,
            0,
            0,
            0,
            0,
            0,
            0,
            0,
            0,
            0,
            0,
            0,
            0,
            0,
            0,
            0,
            0,
            0,
            0,
            0,
            0,
            0,
            0,
            0,
            0,
            0,
            0,
            0,
            0,
            0,
            0,
            0,
            0,
            0,
            0,
            0,
            0,
            0,
            0,
            0,
            0,
            0,
            0,
            0,
            0,
            0,
            0,
            0,
            0,
            0,
            0,
            0,
            0,
            0,
            0,
            0,
            0,
            0,
            0,
            0,
            0,
            0,
            0,
            0,
            0,
            0,
            0,
            0,
            0,
            0,
            0,
            0,
            0,
            0,
            0,
            0,
            0,
            0,
            0,
            0,
            0,
            0,
            0,
            0,
            0,
            0,
            0,
            0,
            0,
            0,
            0,
            0,
            0,
            0,
            0,
            0,
            0,
            0,
            0,
            0,
            0,
            0,
            0,
            0,
            0,
            0,
            0,
            0,
            0,
            0,
            0,
            0,
            0,
            0,
            0,
            0,
            0,
            0,
            0,
            0,
            0,
            0,
            0,
            0,
            0,
            0,
            0,
            0,
            0,
            0,
            0,
            0,
            0,
            0,
            0,
            0,
            0,
            0,
            0,
            0,
            0,
            0,
            0,
            0,
            0,
            0,
            0,
            0,
            0,
            0,
            0,
            0,
            0,
            0,
            0,
            0,
            0,
            0,
            0,
            0,
            0,
            0,
            0,
            0,
            0,
            0,
            0,
            0,
            0,
            0,
            0,
            0,
            0,
            0,
            0,
            0,
            0,
            0,
            0,
            0,
            0,
            0,
            0,
            0,
            0,
            0,
            0,
            0,
            0,
            0,
            0,
            0,
            0,
            0,
            0,
            0,
            0,
            0,
            0,
            0,
            0,
            0,
            0,
            0,
            0,
            0,
            0,
            0,
            0,
            0,
            0,
            0,
            0,
            0,
            0,
            0,
            0,
            0,
            0,
            0,
            0,
            0,
            0,
            0,
            0,
            0,
            0,
            0,
            0,
            0,
            0,
            0,
            0,
            0,
            0,
            0,
            0,
            0,
            0,
            0,
            0,
            0,
            0,
            0,
            0,
            0,
            0,
            0,
            0,
            0,
            0,
            0,
            0,
            0,
            0,
            0,
            0,
            0,
            0,
            0,
            0,
            0,
            0,
            0,
            0,
            0,
            0,
            0,
            0,
            0,
            0,
            0,
            0,
            0,
            0,
            0,
            0,
            0,
            0,
            0,
            0,
            0,
            0,
            0,
            0,
            0,
            0,
            0,
            0,
            0,
            0,
            0,
            0,
            0,
            0,
            0,
            0,
            0,
            0,
            0,
            0,
            0,
            0,
            0,
            0,
            0,
            0,
            0,
            0,
            0,
            0,
            0,
            0,
            0,
            0,
            0,
            0,
            0,
            0,
            0,
            0,
            0,
            0,
            0,
            0,
            0,
            0,
            0,
            0,
            0,
            0,
            0,
            0,
            0,
            0,
            0,
            0,
            0,
            0,
            0,
            0,
            0,
            0,
            0,
            0,
            0,
            0,
            0,
            0,
            0,
            0,
            0,
            0,
            0,
            0,
            0,
            0,
            0,
            0,
            0,
            0,
            0,
            0,
            0,
            0,
            0,
            0,
            0,
            0,
            0,
            0,
            0,
            0,
            0,
            0,
            0,
            0,
            0,
            0,
            0,
            0,
            0,
            0,
            0,
            0,
            0,
            0,
            0,
            0,
            0,
            0,
            0,
            0,
            0,
            0,
            0,
            0,
            0,
            0,
            0,
            0,
            0,
            0,
            0,
            0,
            0,
            0,
            0,
            0,
            0,
            0,
            0,
            0,
            0,
            0,
            0,
            0,
            0,
            0,
            0,
            0,
            0,
            0,
            0,
            0,
            0,
            0,
            0,
            0,
            0,
            0,
            0,
            0,
            0,
            0,
            0,
            0,
            0,
            0,
            0,
            0,
            0,
            0,
            0,
            0,
            0,
            0,
            0,
            0,
            0,
            0,
            0,
            0,
            0,
            0,
            0,
            0,
            0,
            0,
            0,
            0,
            0,
            0,
            0,
            0,
            0,
            0,
            0,
            0,
            0,
            0,
            0,
            0,
            0,
            0,
            0,
            0,
            0,
            0,
            0,
            0,
            0,
            0,
            0,
            0,
            0,
            0,
            0,
            0,
            0,
            0,
            0,
            0,
            0,
            0,
            0,
            0,
            0,
            0,
            0,
            0,
            0,
            0,
            0,
            0,
            0,
            0,
            0,
            0,
            0,
            0,
            0,
            0,
            0,
            0,
            0,
            0,
            0
          ],
          "width": 28,
          "height": 28
        },
        {
          "pixels": [
            0,
            0,
            0,
            0,
            0,
            0,
            0,
            0,
            0,
            0,
            0,
            0,
            0,
            0,
            0,
            0,
            0,
            0,
            0,
            0,
            0,
            0,
            0,
            0,
            0,
            0,
            0,
            0,
            0,
            0,
            0,
            0,
            0,
            0,
            0,
            0,
            0,
            0,
            0,
            0,
            0,
            0,
            0,
            0,
            0,
            0,
            0,
            0,
            0,
            0,
            0,
            0,
            0,
            0,
            0,
            0,
            0,
            0,
            0,
            0,
            0,
            0,
            0,
            0,
            0,
            0,
            0,
            0,
            0,
            0,
            0,
            0,
            0,
            0,
            0,
            0,
            0,
            0,
            0,
            0,
            0,
            0,
            0,
            0,
            0,
            0,
            0,
            0,
            0,
            0,
            0,
            0,
            0,
            0,
            0,
            0,
            0,
            0,
            0,
            0,
            0,
            0,
            0,
            0,
            0,
            0,
            0,
            0,
            0,
            0,
            0,
            0,
            0,
            0,
            0,
            0,
            0,
            0,
            0,
            0,
            0,
            0,
            0,
            0,
            0,
            0,
            0,
            0,
            0,
            0,
            0,
            0,
            0,
            0,
            0,
            0,
            0,
            0,
            0,
            0,
            0,
            0,
            0,
            0,
            0,
            0,
            0,
            0,
            0,
            0,
            0,
            0,
            0,
            0,
            0,
            0,
            0,
            0,
            0,
            0,
            0,
            0,
            0,
            0,
            0,
            0,
            0,
            0,
            0,
            0,
            0,
            0,
            0,
            0,
            0,
            0,
            0,
            0,
            0,
            0,
            0,
            0,
            0,
            0,
            0,
            0,
            0,
            0,
            0,
            0,
            0,
            0,
            0,
            0,
            0,
            0,
            0,
            0,
            0,
            0,
            0,
            0,
            0,
            0,
            0,
            0,
            0,
            0,
            0,
            0,
            0,
            0,
            0,
            0,
            0,
            0,
            0,
            0,
            0,
            0,
            0,
            0,
            0,
            0,
            0,
            0,
            0,
            0,
            0,
            0,
            0,
            0,
            0,
            0,
            0,
            0,
            0,
            0,
            0,
            0,
            0,
            0,
            0,
            0,
            0,
            0,
            0,
            0,
            0,
            0,
            0,
            0,
            0,
            0,
            0,
            0,
            0,
            0,
            0,
            0,
            0,
            0,
            0,
            0,
            0,
            0,
            0,
            0,
            0,
            0,
            0,
            0,
            0,
            0,
            0,
            0,
            0,
            0,
            0,
            0,
            0,
            0,
            0,
            0,
            0,
            0,
            0,
            0,
            0,
            0,
            0,
            0,
            0,
            0,
            0,
            0,
            0,
            0,
            0,
            0,
            0,
            0,
            0,
            0,
            0,
            0,
            0,
            0,
            0,
            0,
            0,
            0,
            0,
            0,
            0,
            0,
            0,
            0,
            0,
            0,
            0,
            0,
            0,
            0,
            0,
            0,
            0,
            0,
            0,
            0,
            0,
            0,
            0,
            0,
            0,
            0,
            0,
            0,
            0,
            0,
            0,
            0,
            0,
            0,
            0,
            0,
            0,
            0,
            0,
            0,
            0,
            0,
            0,
            0,
            0,
            0,
            0,
            0,
            0,
            0,
            0,
            0,
            0,
            0,
            0,
            0,
            0,
            0,
            0,
            0,
            0,
            0,
            0,
            0,
            0,
            0,
            0,
            0,
            0,
            0,
            0,
            0,
            0,
            0,
            0,
            0,
            0,
            0,
            0,
            0,
            0,
            0,
            0,
            0,
            0,
            0,
            0,
            0,
            0,
            0,
            0,
            0,
            0,
            0,
            0,
            0,
            0,
            0,
            0,
            0,
            0,
            0,
            0,
            0,
            0,
            0,
            0,
            0,
            0,
            0,
            0,
            0,
            0,
            0,
            0,
            0,
            0,
            0,
            0,
            0,
            0,
            0,
            0,
            0,
            0,
            0,
            0,
            0,
            0,
            0,
            0,
            0,
            0,
            0,
            0,
            0,
            0,
            0,
            0,
            0,
            0,
            0,
            0,
            0,
            0,
            0,
            0,
            0,
            0,
            0,
            0,
            0,
            0,
            0,
            0,
            0,
            0,
            0,
            0,
            0,
            0,
            0,
            0,
            0,
            0,
            0,
            0,
            0,
            0,
            0,
            0,
            0,
            0,
            0,
            0,
            0,
            0,
            0,
            0,
            0,
            0,
            0,
            0,
            0,
            0,
            0,
            0,
            0,
            0,
            0,
            0,
            0,
            0,
            0,
            0,
            0,
            0,
            0,
            0,
            0,
            0,
            0,
            0,
            0,
            0,
            0,
            0,
            0,
            0,
            0,
            0,
            0,
            0,
            0,
            0,
            0,
            0,
            0,
            0,
            0,
            0,
            0,
            0,
            0,
            0,
            0,
            0,
            0,
            0,
            0,
            0,
            0,
            0,
            0,
            0,
            0,
            0,
            0,
            0,
            0,
            0,
            0,
            0,
            0,
            0,
            0,
            0,
            0,
            0,
            0,
            0,
            0,
            0,
            0,
            0,
            0,
            0,
            0,
            0,
            0,
            0,
            0,
            0,
            0,
            0,
            0,
            0,
            0,
            0,
            0,
            0,
            0,
            0,
            0,
            0,
            0,
            0,
            0,
            0,
            0,
            0,
            0,
            0,
            0,
            0,
            0,
            0,
            0,
            0,
            0,
            0,
            0,
            0,
            0,
            0,
            0,
            0,
            0,
            0,
            0,
            0,
            0,
            0,
            0,
            0,
            0,
            0,
            0,
            0,
            0,
            0,
            0,
            0,
            0,
            0,
            0,
            0,
            0,
            0,
            0,
            0,
            0,
            0,
            0,
            0,
            0,
            0,
            0,
            0,
            0,
            0,
            0,
            0,
            0,
            0,
            0,
            0,
            0,
            0,
            0,
            0,
            0,
            0,
            0,
            0,
            0,
            0,
            0,
            0,
            0,
            0,
            0,
            0,
            0,
            0,
            0,
            0,
            0,
            0,
            0,
            0,
            0,
            0,
            0,
            0,
            0,
            0,
            0,
            0,
            0,
            0,
            0,
            0,
            0,
            0,
            0,
            0,
            0,
            0,
            0,
            0,
            0,
            0,
            0,
            0,
            0,
            0,
            0,
            0,
            0,
            0,
            0,
            0,
            0,
            0,
            0,
            0,
            0,
            0,
            0,
            0,
            0,
            0,
            0,
            0,
            0,
            0,
            0,
            0,
            0,
            0,
            0,
            0,
            0,
            0,
            0,
            0,
            0,
            0,
            0,
            0,
            0,
            0,
            0,
            0,
            0,
            0,
            0,
            0,
            0,
            0,
            0,
            0,
            0,
            0,
            0,
            0,
            0,
            0,
            0,
            0,
            0,
            0,
            0,
            0,
            0,
            0,
            0,
            0,
            0,
            0,
            0,
            0,
            0,
            0,
            0,
            0,
            0,
            0,
            0,
            0,
            0,
            0,
            0,
            0,
            0,
            0,
            0,
            0,
            0,
            0,
            0,
            0,
            0
          ],
          "width": 28,
          "height": 28
        },
        {
          "pixels": [
            0,
            0,
            0,
            0,
            0,
            0,
            0,
            0,
            0,
            0,
            0,
            0,
            0,
            0,
            0,
            0,
            0,
            0,
            0,
            0,
            0,
            0,
            0,
            0,
            0,
            0,
            0,
            0,
            0,
            0,
            0,
            0,
            0,
            0,
            0,
            0,
            0,
            0,
            0,
            0,
            0,
            0,
            0,
            0,
            0,
            0,
            0,
            0,
            0,
            0,
            0,
            0,
            0,
            0,
            0,
            0,
            0,
            0,
            0,
            0,
            0,
            0,
            0,
            0,
            0,
            0,
            0,
            0,
            0,
            0,
            0,
            0,
            0,
            0,
            0,
            0,
            0,
            0,
            0,
            0,
            0,
            0,
            0,
            0,
            0,
            0,
            0,
            0,
            0,
            0,
            0,
            0,
            0,
            0,
            0,
            0,
            0,
            0,
            0,
            0,
            0,
            0,
            0,
            0,
            0,
            0,
            0,
            0,
            0,
            0,
            0,
            0,
            0,
            0,
            0,
            0,
            0,
            0,
            0,
            0,
            0,
            0,
            0,
            0,
            0,
            0,
            0,
            0,
            0,
            0,
            0,
            0,
            0,
            0,
            0,
            0,
            0,
            0,
            0,
            0,
            0,
            0,
            0,
            0,
            0,
            0,
            0,
            0,
            0,
            0,
            0,
            0,
            0,
            0,
            0,
            0,
            0,
            0,
            0,
            0,
            0,
            0,
            0,
            0,
            0,
            0,
            0,
            0,
            0,
            0,
            0,
            0,
            0,
            0,
            0,
            0,
            0,
            0,
            0,
            0,
            0,
            0,
            0,
            0,
            0,
            0,
            0,
            0,
            0,
            0,
            0,
            0,
            0,
            0,
            0,
            0,
            0,
            0,
            0,
            0,
            0,
            0,
            0,
            0,
            0,
            0,
            0,
            0,
            0,
            0,
            0,
            0,
            0,
            0,
            0,
            0,
            0,
            0,
            0,
            0,
            0,
            0,
            0,
            0,
            0,
            0,
            0,
            0,
            0,
            0,
            0,
            0,
            0,
            0,
            0,
            0,
            0,
            0,
            0,
            0,
            0,
            0,
            0,
            0,
            0,
            0,
            0,
            0,
            0,
            0,
            0,
            0,
            0,
            0,
            0,
            0,
            0,
            0,
            0,
            0,
            0,
            0,
            0,
            0,
            0,
            0,
            0,
            0,
            0,
            0,
            0,
            0,
            0,
            0,
            0,
            0,
            0,
            0,
            0,
            0,
            0,
            0,
            0,
            0,
            0,
            0,
            0,
            0,
            0,
            0,
            0,
            0,
            0,
            0,
            0,
            0,
            0,
            0,
            0,
            0,
            0,
            0,
            0,
            0,
            0,
            0,
            0,
            0,
            0,
            0,
            0,
            0,
            0,
            0,
            0,
            0,
            0,
            0,
            0,
            0,
            0,
            0,
            0,
            0,
            0,
            0,
            0,
            0,
            0,
            0,
            0,
            0,
            0,
            0,
            0,
            0,
            0,
            0,
            0,
            0,
            0,
            0,
            0,
            0,
            0,
            0,
            0,
            0,
            0,
            0,
            0,
            0,
            0,
            0,
            0,
            0,
            0,
            0,
            0,
            0,
            0,
            0,
            0,
            0,
            0,
            0,
            0,
            0,
            0,
            0,
            0,
            0,
            0,
            0,
            0,
            0,
            0,
            0,
            0,
            0,
            0,
            0,
            0,
            0,
            0,
            0,
            0,
            0,
            0,
            0,
            0,
            0,
            0,
            0,
            0,
            0,
            0,
            0,
            0,
            0,
            0,
            0,
            0,
            0,
            0,
            0,
            0,
            0,
            0,
            0,
            0,
            0,
            0,
            0,
            0,
            0,
            0,
            0,
            0,
            0,
            0,
            0,
            0,
            0,
            0,
            0,
            0,
            0,
            0,
            0,
            0,
            0,
            0,
            0,
            0,
            0,
            0,
            0,
            0,
            0,
            0,
            0,
            0,
            0,
            0,
            0,
            0,
            0,
            0,
            0,
            0,
            0,
            0,
            0,
            0,
            0,
            0,
            0,
            0,
            0,
            0,
            0,
            0,
            0,
            0,
            0,
            0,
            0,
            0,
            0,
            0,
            0,
            0,
            0,
            0,
            0,
            0,
            0,
            0,
            0,
            0,
            0,
            0,
            0,
            0,
            0,
            0,
            0,
            0,
            0,
            0,
            0,
            0,
            0,
            0,
            0,
            0,
            0,
            0,
            0,
            0,
            0,
            0,
            0,
            0,
            0,
            0,
            0,
            0,
            0,
            0,
            0,
            0,
            0,
            0,
            0,
            0,
            0,
            0,
            0,
            0,
            0,
            0,
            0,
            0,
            0,
            0,
            0,
            0,
            0,
            0,
            0,
            0,
            0,
            0,
            0,
            0,
            0,
            0,
            0,
            0,
            0,
            0,
            0,
            0,
            0,
            0,
            0,
            0,
            0,
            0,
            0,
            0,
            0,
            0,
            0,
            0,
            0,
            0,
            0,
            0,
            0,
            0,
            0,
            0,
            0,
            0,
            0,
            0,
            0,
            0,
            0,
            0,
            0,
            0,
            0,
            0,
            0,
            0,
            0,
            0,
            0,
            0,
            0,
            0,
            0,
            0,
            0,
            0,
            0,
            0,
            0,
            0,
            0,
            0,
            0,
            0,
            0,
            0,
            0,
            0,
            0,
            0,
            0,
            0,
            0,
            0,
            0,
            0,
            0,
            0,
            0,
            0,
            0,
            0,
            0,
            0,
            0,
            0,
            0,
            0,
            0,
            0,
            0,
            0,
            0,
            0,
            0,
            0,
            0,
            0,
            0,
            0,
            0,
            0,
            0,
            0,
            0,
            0,
            0,
            0,
            0,
            0,
            0,
            0,
            0,
            0,
            0,
            0,
            0,
            0,
            0,
            0,
            0,
            0,
            0,
            0,
            0,
            0,
            0,
            0,
            0,
            0,
            0,
            0,
            0,
            0,
            0,
            0,
            0,
            0,
            0,
            0,
            0,
            0,
            0,
            0,
            0,
            0,
            0,
            0,
            0,
            0,
            0,
            0,
            0,
            0,
            0,
            0,
            0,
            0,
            0,
            0,
            0,
            0,
            0,
            0,
            0,
            0,
            0,
            0,
            0,
            0,
            0,
            0,
            0,
            0,
            0,
            0,
            0,
            0,
            0,
            0,
            0,
            0,
            0,
            0,
            0,
            0,
            0,
            0,
            0,
            0,
            0,
            0,
            0,
            0,
            0,
            0,
            0,
            0,
            0,
            0,
            0,
            0,
            0,
            0,
            0,
            0,
            0,
            0,
            0,
            0,
            0,
            0,
            0,
            0,
            0,
            0,
            0,
            0,
            0,
            0,
            0,
            0,
            0,
            0,
            0,
            0,
            0,
            0,
            0,
            0,
            0,
            0,
            0,
            0,
            0,
            0,
            0,
            0,
            0,
            0,
            0,
            0,
            0,
            0,
            0,
            0,
            0,
            0,
            0,
            0,
            0
          ],
          "width": 28,
          "height": 28
        },
        {
          "pixels": [
            0,
            0,
            0,
            0,
            0,
            0,
            0,
            0,
            0,
            0,
            0,
            0,
            0,
            0,
            0,
            0,
            0,
            0,
            0,
            0,
            0,
            0,
            0,
            0,
            0,
            0,
            0,
            0,
            0,
            0,
            0,
            0,
            0,
            0,
            0,
            0,
            0,
            0,
            0,
            0,
            0,
            0,
            0,
            0,
            0,
            0,
            0,
            0,
            0,
            0,
            0,
            0,
            0,
            0,
            0,
            0,
            0,
            0,
            0,
            0,
            0,
            0,
            0,
            0,
            0,
            0,
            0,
            0,
            0,
            0,
            0,
            0,
            0,
            0,
            0,
            0,
            0,
            0,
            0,
            0,
            0,
            0,
            0,
            0,
            0,
            0,
            0,
            0,
            0,
            0,
            0,
            0,
            0,
            0,
            0,
            0,
            0,
            0,
            0,
            0,
            0,
            0,
            0,
            0,
            0,
            0,
            0,
            0,
            0,
            0,
            0,
            0,
            0,
            0,
            0,
            0,
            0,
            0,
            0,
            0,
            0,
            0,
            0,
            0,
            0,
            0,
            0,
            0,
            0,
            0,
            0,
            0,
            0,
            0,
            0,
            0,
            0,
            0,
            0,
            0,
            0,
            0,
            0,
            0,
            0,
            0,
            0,
            0,
            0,
            0,
            0,
            0,
            0,
            0,
            0,
            0,
            0,
            0,
            0,
            0,
            0,
            0,
            0,
            0,
            0,
            0,
            0,
            0,
            0,
            0,
            0,
            0,
            0,
            0,
            0,
            0,
            0,
            0,
            0,
            0,
            0,
            0,
            0,
            0,
            0,
            0,
            0,
            0,
            0,
            0,
            0,
            0,
            0,
            0,
            0,
            0,
            0,
            0,
            0,
            0,
            0,
            0,
            0,
            0,
            0,
            0,
            0,
            0,
            0,
            0,
            0,
            0,
            0,
            0,
            0,
            0,
            0,
            0,
            0,
            0,
            0,
            0,
            0,
            0,
            0,
            0,
            0,
            0,
            0,
            0,
            0,
            0,
            0,
            0,
            0,
            0,
            0,
            0,
            0,
            0,
            0,
            0,
            0,
            0,
            0,
            0,
            0,
            0,
            0,
            0,
            0,
            0,
            0,
            0,
            0,
            0,
            0,
            0,
            0,
            0,
            0,
            0,
            0,
            0,
            0,
            0,
            0,
            0,
            0,
            0,
            0,
            0,
            0,
            0,
            0,
            0,
            0,
            0,
            0,
            0,
            0,
            0,
            0,
            0,
            0,
            0,
            0,
            0,
            0,
            0,
            0,
            0,
            0,
            0,
            0,
            0,
            0,
            0,
            0,
            0,
            0,
            0,
            0,
            0,
            0,
            0,
            0,
            0,
            0,
            0,
            0,
            0,
            0,
            0,
            0,
            0,
            0,
            0,
            0,
            0,
            0,
            0,
            0,
            0,
            0,
            0,
            0,
            0,
            0,
            0,
            0,
            0,
            0,
            0,
            0,
            0,
            0,
            0,
            0,
            0,
            0,
            0,
            0,
            0,
            0,
            0,
            0,
            0,
            0,
            0,
            0,
            0,
            0,
            0,
            0,
            0,
            0,
            0,
            0,
            0,
            0,
            0,
            0,
            0,
            0,
            0,
            0,
            0,
            0,
            0,
            0,
            0,
            0,
            0,
            0,
            0,
            0,
            0,
            0,
            0,
            0,
            0,
            0,
            0,
            0,
            0,
            0,
            0,
            0,
            0,
            0,
            0,
            0,
            0,
            0,
            0,
            0,
            0,
            0,
            0,
            0,
            0,
            0,
            0,
            0,
            0,
            0,
            0,
            0,
            0,
            0,
            0,
            0,
            0,
            0,
            0,
            0,
            0,
            0,
            0,
            0,
            0,
            0,
            0,
            0,
            0,
            0,
            0,
            0,
            0,
            0,
            0,
            0,
            0,
            0,
            0,
            0,
            0,
            0,
            0,
            0,
            0,
            0,
            0,
            0,
            0,
            0,
            0,
            0,
            0,
            0,
            0,
            0,
            0,
            0,
            0,
            0,
            0,
            0,
            0,
            0,
            0,
            0,
            0,
            0,
            0,
            0,
            0,
            0,
            0,
            0,
            0,
            0,
            0,
            0,
            0,
            0,
            0,
            0,
            0,
            0,
            0,
            0,
            0,
            0,
            0,
            0,
            0,
            0,
            0,
            0,
            0,
            0,
            0,
            0,
            0,
            0,
            0,
            0,
            0,
            0,
            0,
            0,
            0,
            0,
            0,
            0,
            0,
            0,
            0,
            0,
            0,
            0,
            0,
            0,
            0,
            0,
            0,
            0,
            0,
            0,
            0,
            0,
            0,
            0,
            0,
            0,
            0,
            0,
            0,
            0,
            0,
            0,
            0,
            0,
            0,
            0,
            0,
            0,
            0,
            0,
            0,
            0,
            0,
            0,
            0,
            0,
            0,
            0,
            0,
            0,
            0,
            0,
            0,
            0,
            0,
            0,
            0,
            0,
            0,
            0,
            0,
            0,
            0,
            0,
            0,
            0,
            0,
            0,
            0,
            0,
            0,
            0,
            0,
            0,
            0,
            0,
            0,
            0,
            0,
            0,
            0,
            0,
            0,
            0,
            0,
            0,
            0,
            0,
            0,
            0,
            0,
            0,
            0,
            0,
            0,
            0,
            0,
            0,
            0,
            0,
            0,
            0,
            0,
            0,
            0,
            0,
            0,
            0,
            0,
            0,
            0,
            0,
            0,
            0,
            0,
            0,
            0,
            0,
            0,
            0,
            0,
            0,
            0,
            0,
            0,
            0,
            0,
            0,
            0,
            0,
            0,
            0,
            0,
            0,
            0,
            0,
            0,
            0,
            0,
            0,
            0,
            0,
            0,
            0,
            0,
            0,
            0,
            0,
            0,
            0,
            0,
            0,
            0,
            0,
            0,
            0,
            0,
            0,
            0,
            0,
            0,
            0,
            0,
            0,
            0,
            0,
            0,
            0,
            0,
            0,
            0,
            0,
            0,
            0,
            0,
            0,
            0,
            0,
            0,
            0,
            0,
            0,
            0,
            0,
            0,
            0,
            0,
            0,
            0,
            0,
            0,
            0,
            0,
            0,
            0,
            0,
            0,
            0,
            0,
            0,
            0,
            0,
            0,
            0,
            0,
            0,
            0,
            0,
            0,
            0,
            0,
            0,
            0,
            0,
            0,
            0,
            0,
            0,
            0,
            0,
            0,
            0,
            0,
            0,
            0,
            0,
            0,
            0,
            0,
            0,
            0,
            0,
            0,
            0,
            0,
            0,
            0,
            0,
            0,
            0,
            0,
            0,
            0,
            0,
            0,
            0,
            0,
            0,
            0,
            0,
            0,
            0,
            0,
            0,
            0,
            0,
            0,
            0,
            0,
            0,
            0,
            0,
            0,
            0,
            0,
            0,
            0,
            0,
            0,
            0,
            0,
            0,
            0,
            0,
            0,
            0,
            0,
            0,
            0,
            0,
            0,
            0,
            0
          ],
          "width": 28,
          "height": 28
        }
      ],
      "width": 28,
      "height": 28,
      "depth": 5
    },
    {
      "images": [
        {
          "pixels": [
            0,
            0,
            0,
            0,
            0,
            0,
            0,
            0,
            0,
            0,
            0,
            0,
            0,
            0,
            0,
            0,
            0,
            0,
            0,
            0,
            0,
            0,
            0,
            0,
            0,
            0,
            0,
            0,
            0,
            0,
            0,
            0,
            0,
            0,
            0,
            0,
            0,
            0,
            0,
            0,
            0,
            0,
            0,
            0,
            0,
            0,
            0,
            0,
            0,
            0,
            0,
            0,
            0,
            0,
            0,
            0,
            0,
            0,
            0,
            0,
            0,
            0,
            0,
            0,
            0,
            0,
            0,
            0,
            0,
            0,
            0,
            0,
            0,
            0,
            0,
            0,
            0,
            0,
            0,
            0,
            0,
            0,
            0,
            0,
            0,
            0,
            0,
            0,
            0,
            0,
            0,
            0,
            0,
            0,
            0,
            0,
            0,
            0,
            0,
            0
          ],
          "width": 10,
          "height": 10
        },
        {
          "pixels": [
            0,
            0,
            0,
            0,
            0,
            0,
            0,
            0,
            0,
            0,
            0,
            0,
            0,
            0,
            0,
            0,
            0,
            0,
            0,
            0,
            0,
            0,
            0,
            0,
            0,
            0,
            0,
            0,
            0,
            0,
            0,
            0,
            0,
            0,
            0,
            0,
            0,
            0,
            0,
            0,
            0,
            0,
            0,
            0,
            0,
            0,
            0,
            0,
            0,
            0,
            0,
            0,
            0,
            0,
            0,
            0,
            0,
            0,
            0,
            0,
            0,
            0,
            0,
            0,
            0,
            0,
            0,
            0,
            0,
            0,
            0,
            0,
            0,
            0,
            0,
            0,
            0,
            0,
            0,
            0,
            0,
            0,
            0,
            0,
            0,
            0,
            0,
            0,
            0,
            0,
            0,
            0,
            0,
            0,
            0,
            0,
            0,
            0,
            0,
            0
          ],
          "width": 10,
          "height": 10
        },
        {
          "pixels": [
            0,
            0,
            0,
            0,
            0,
            0,
            0,
            0,
            0,
            0,
            0,
            0,
            0,
            0,
            0,
            0,
            0,
            0,
            0,
            0,
            0,
            0,
            0,
            0,
            0,
            0,
            0,
            0,
            0,
            0,
            0,
            0,
            0,
            0,
            0,
            0,
            0,
            0,
            0,
            0,
            0,
            0,
            0,
            0,
            0,
            0,
            0,
            0,
            0,
            0,
            0,
            0,
            0,
            0,
            0,
            0,
            0,
            0,
            0,
            0,
            0,
            0,
            0,
            0,
            0,
            0,
            0,
            0,
            0,
            0,
            0,
            0,
            0,
            0,
            0,
            0,
            0,
            0,
            0,
            0,
            0,
            0,
            0,
            0,
            0,
            0,
            0,
            0,
            0,
            0,
            0,
            0,
            0,
            0,
            0,
            0,
            0,
            0,
            0,
            0
          ],
          "width": 10,
          "height": 10
        },
        {
          "pixels": [
            0,
            0,
            0,
            0,
            0,
            0,
            0,
            0,
            0,
            0,
            0,
            0,
            0,
            0,
            0,
            0,
            0,
            0,
            0,
            0,
            0,
            0,
            0,
            0,
            0,
            0,
            0,
            0,
            0,
            0,
            0,
            0,
            0,
            0,
            0,
            0,
            0,
            0,
            0,
            0,
            0,
            0,
            0,
            0,
            0,
            0,
            0,
            0,
            0,
            0,
            0,
            0,
            0,
            0,
            0,
            0,
            0,
            0,
            0,
            0,
            0,
            0,
            0,
            0,
            0,
            0,
            0,
            0,
            0,
            0,
            0,
            0,
            0,
            0,
            0,
            0,
            0,
            0,
            0,
            0,
            0,
            0,
            0,
            0,
            0,
            0,
            0,
            0,
            0,
            0,
            0,
            0,
            0,
            0,
            0,
            0,
            0,
            0,
            0,
            0
          ],
          "width": 10,
          "height": 10
        },
        {
          "pixels": [
            0,
            0,
            0,
            0,
            0,
            0,
            0,
            0,
            0,
            0,
            0,
            0,
            0,
            0,
            0,
            0,
            0,
            0,
            0,
            0,
            0,
